\* 16 filters, kernel size: 3x3*\
const static float kernel_0_R[9] = {0.11462745070457458f,0.05363591015338898f,-0.00431242398917675f,0.019562257453799248f,-0.04151573032140732f,-0.1653231680393219f,0.27422967553138733f,-0.20677736401557922f,-0.19938918948173523f}
const static float kernel_1_R[9] = {-0.06578610837459564f,0.03346140310168266f,-0.002695414936169982f,0.05893756449222565f,0.04746170714497566f,-0.013238072395324707f,-0.17288623750209808f,0.05903647467494011f,0.03632635250687599f}
const static float kernel_2_R[9] = {0.007030010689049959f,-0.1434035748243332f,0.05785912275314331f,-0.05554428696632385f,-0.17066334187984467f,-0.09976363927125931f,-0.04033029079437256f,0.036911509931087494f,-0.08787566423416138f}
const static float kernel_3_R[9] = {0.1706327646970749f,-0.1735689342021942f,-0.15776190161705017f,0.030950648710131645f,0.12046213448047638f,-0.16210414469242096f,-0.02929159440100193f,0.147989422082901f,0.1426728218793869f}
const static float kernel_4_R[9] = {-0.01713121123611927f,-0.10441519320011139f,0.13464108109474182f,0.2072174996137619f,0.01104780100286007f,0.04266546294093132f,0.1713794320821762f,-0.11223995685577393f,0.11271092295646667f}
const static float kernel_5_R[9] = {-0.027554752305150032f,0.09258980304002762f,-0.0955166444182396f,-0.16864092648029327f,0.0894634872674942f,0.1071544885635376f,0.010376734659075737f,-0.15166904032230377f,0.13577991724014282f}
const static float kernel_6_R[9] = {-0.1685241460800171f,0.019929200410842896f,0.149908646941185f,0.03480047732591629f,0.09489546716213226f,-0.13899189233779907f,0.006128635723143816f,0.027991393581032753f,-0.06300146132707596f}
const static float kernel_7_R[9] = {-0.07180691510438919f,0.10403310507535934f,-0.09894485771656036f,-0.06136838346719742f,0.07360583543777466f,0.014134959317743778f,-0.16604217886924744f,0.08972939103841782f,-0.08144819736480713f}
const static float kernel_8_R[9] = {-0.09451261907815933f,0.04424607381224632f,0.07295285910367966f,0.020952356979250908f,0.08785349130630493f,-0.07042178511619568f,0.020556967705488205f,-0.05309382453560829f,-0.15030443668365479f}
const static float kernel_9_R[9] = {-0.11526958644390106f,-0.21997755765914917f,-0.05108172819018364f,-0.16759583353996277f,0.10006505250930786f,0.029092704877257347f,-0.09368974715471268f,-0.17887049913406372f,-0.0009154832223430276f}
const static float kernel_10_R[9] = {-0.3885379433631897f,-0.23505166172981262f,-0.18030945956707f,-0.10623930394649506f,0.002937721088528633f,-0.20031893253326416f,0.13432401418685913f,0.10428125411272049f,0.11864101886749268f}
const static float kernel_11_R[9] = {-0.13343819975852966f,0.018610553815960884f,-0.056765079498291016f,-0.10483551770448685f,-0.0434875413775444f,-0.13453727960586548f,-0.11649494618177414f,-0.2820892930030823f,-0.3314521014690399f}
const static float kernel_12_R[9] = {0.07279061526060104f,0.09854916483163834f,0.11085797101259232f,-0.051628805696964264f,0.07726272940635681f,-0.05977324768900871f,-0.09980317950248718f,-0.07490018755197525f,0.004474001005291939f}
const static float kernel_13_R[9] = {0.14205294847488403f,0.04146120697259903f,0.0011910612229257822f,0.06114808842539787f,-0.1315220594406128f,-0.06259564310312271f,0.046415701508522034f,-0.20576778054237366f,0.0255401860922575f}
const static float kernel_14_R[9] = {0.20237718522548676f,-0.09216680377721786f,0.014081469736993313f,0.09235170483589172f,-0.08950703591108322f,-0.1080479547381401f,0.1563001275062561f,-0.07282610982656479f,-0.13696184754371643f}
const static float kernel_15_R[9] = {-0.07448314875364304f,-0.13050352036952972f,0.08781293034553528f,0.040929973125457764f,-0.10892289131879807f,0.02552013285458088f,0.14209318161010742f,-0.08450678735971451f,-0.11464736610651016f}
const static float kernel_0_G[9] = {-0.09212485700845718f,-0.08750160038471222f,-0.043397773057222366f,-0.040858734399080276f,-0.009829353541135788f,0.018967295065522194f,0.1291762888431549f,-0.1484900414943695f,-0.13357986509799957f}
const static float kernel_1_G[9] = {-0.12888158857822418f,-0.13912643492221832f,0.08564277738332748f,0.2049231380224228f,0.11631051450967789f,0.11026118695735931f,-0.016044916585087776f,-0.14476393163204193f,0.009111166931688786f}
const static float kernel_2_G[9] = {-0.09474823623895645f,-0.1457754522562027f,0.06424908339977264f,0.08136038482189178f,0.048371076583862305f,0.14870049059391022f,-0.10621768981218338f,0.09986437857151031f,0.09486526250839233f}
const static float kernel_3_G[9] = {0.028349561616778374f,0.06270021200180054f,-0.07574553042650223f,-0.023074181750416756f,-0.15274512767791748f,0.04552765563130379f,0.07711563259363174f,-0.09676291793584824f,0.043366726487874985f}
const static float kernel_4_G[9] = {-0.10175729542970657f,0.023784847930073738f,-0.0820927694439888f,0.033428873866796494f,-0.20073077082633972f,-0.0397719070315361f,0.1459140181541443f,-0.13868100941181183f,0.13535018265247345f}
const static float kernel_5_G[9] = {-0.050473615527153015f,0.03735903277993202f,-0.07637812197208405f,-0.12655091285705566f,0.0311188492923975f,0.03349290415644646f,-0.02533857710659504f,-0.056881025433540344f,-0.028211340308189392f}
const static float kernel_6_G[9] = {0.07105767726898193f,0.02752133645117283f,0.1363452970981598f,-0.033497873693704605f,0.18387016654014587f,0.14618264138698578f,0.06144827976822853f,-0.05525738745927811f,0.027772774919867516f}
const static float kernel_7_G[9] = {0.08853447437286377f,-0.0798254981637001f,0.13193942606449127f,-0.037720948457717896f,0.10998788475990295f,-0.017437798902392387f,-0.0832357406616211f,-0.11893770098686218f,-0.007452490273863077f}
const static float kernel_8_G[9] = {-0.28516513109207153f,0.01630420610308647f,0.03175901249051094f,-0.06930139660835266f,0.00454631308093667f,0.06554478406906128f,-0.15679170191287994f,0.1006278395652771f,-0.056932203471660614f}
const static float kernel_9_G[9] = {-0.21822388470172882f,-0.046847984194755554f,-0.04877161607146263f,-0.1494997888803482f,-0.0734822005033493f,0.021579086780548096f,0.11667518317699432f,-0.3131663501262665f,0.07294516265392303f}
const static float kernel_10_G[9] = {-0.1786670982837677f,0.04478757828474045f,-0.1238614171743393f,0.07169713079929352f,0.023088091984391212f,0.08742348849773407f,0.1862809807062149f,0.15923261642456055f,0.18219786882400513f}
const static float kernel_11_G[9] = {-0.0836942121386528f,0.08280346542596817f,0.015277449041604996f,-0.015761641785502434f,-0.013405131176114082f,0.20645108819007874f,0.01627247780561447f,0.06882751733064651f,-0.15347835421562195f}
const static float kernel_12_G[9] = {0.23871548473834991f,0.14894473552703857f,-0.20285150408744812f,-0.07827150076627731f,-0.10509781539440155f,-0.18734145164489746f,-0.22333745658397675f,-0.28487926721572876f,0.12625546753406525f}
const static float kernel_13_G[9] = {-0.01335212029516697f,0.1182609423995018f,-0.06807880103588104f,0.00785942655056715f,-0.18988443911075592f,-0.012508521787822247f,0.13551011681556702f,0.0034376210533082485f,-0.14067146182060242f}
const static float kernel_14_G[9] = {0.025218069553375244f,0.012376860715448856f,-0.02440374717116356f,-0.20063641667366028f,-0.09554915130138397f,0.00534364627674222f,0.18721584975719452f,-0.1283864974975586f,-0.11453187465667725f}
const static float kernel_15_G[9] = {-0.06325911730527878f,-0.08976661413908005f,0.14353564381599426f,-0.023679278790950775f,0.11460595577955246f,0.018100332468748093f,0.18863071501255035f,0.13105417788028717f,-0.20705103874206543f}
const static float kernel_0_B[9] = {-0.030779032036662102f,0.008600336499512196f,-0.0888831689953804f,-0.17723123729228973f,0.14520590007305145f,-0.08133511245250702f,-0.08438359946012497f,0.09120340645313263f,-0.011497673578560352f}
const static float kernel_1_B[9] = {0.11187787353992462f,-0.02786751464009285f,-0.023116756230592728f,-0.02280619367957115f,0.18592573702335358f,-0.012170674279332161f,-0.11054731160402298f,-0.07714015990495682f,-0.13542018830776215f}
const static float kernel_2_B[9] = {-0.20628659427165985f,0.1332118958234787f,0.14351825416088104f,0.05758722126483917f,0.051115136593580246f,0.007107384968549013f,0.03513454273343086f,-0.21498598158359528f,0.012531634420156479f}
const static float kernel_3_B[9] = {-0.11876524984836578f,-0.003326904494315386f,0.024326376616954803f,0.011801723390817642f,0.025208696722984314f,0.03332913666963577f,0.21389362215995789f,0.06568201631307602f,-0.10063974559307098f}
const static float kernel_4_B[9] = {0.07679500430822372f,-0.16834834218025208f,-0.19202060997486115f,-0.16260667145252228f,-0.09520070999860764f,-0.20930467545986176f,-0.037050310522317886f,0.08525409549474716f,0.05158776044845581f}
const static float kernel_5_B[9] = {0.06368013471364975f,0.02126443386077881f,0.02128707617521286f,0.04606784135103226f,0.10291148722171783f,0.0780278667807579f,-0.16196365654468536f,0.053321752697229385f,-0.16422957181930542f}
const static float kernel_6_B[9] = {-0.022296832874417305f,-0.09394589066505432f,-0.06215096637606621f,-0.018109338358044624f,-0.13870714604854584f,-0.06267602741718292f,0.04687270149588585f,-0.006065193563699722f,0.16694685816764832f}
const static float kernel_7_B[9] = {0.03359292447566986f,-0.045587729662656784f,-0.11239581555128098f,0.05098186805844307f,0.1004214733839035f,-0.12240485846996307f,-0.0628303587436676f,-0.02761031873524189f,0.11085250228643417f}
const static float kernel_8_B[9] = {-0.060663532465696335f,0.2229827642440796f,0.04155661538243294f,-0.04836731776595116f,0.21121305227279663f,0.1189984679222107f,-0.06963376700878143f,0.12919822335243225f,0.0810287743806839f}
const static float kernel_9_B[9] = {-0.0804198682308197f,0.0035630210768431425f,-0.03585188090801239f,-0.1803888976573944f,-0.019041752442717552f,-0.08966194838285446f,0.05910341069102287f,-0.11919870227575302f,0.1387219876050949f}
const static float kernel_10_B[9] = {-0.12831264734268188f,-0.06683564186096191f,-0.15121980011463165f,-0.22370725870132446f,-0.021987799555063248f,0.004893181379884481f,0.08568498492240906f,-0.047268692404031754f,-0.0771302655339241f}
const static float kernel_11_B[9] = {0.05998825654387474f,-0.08792085945606232f,0.13338898122310638f,0.05934363231062889f,-0.08052080124616623f,-0.003663750132545829f,0.015500910580158234f,0.0358797125518322f,-0.04788731783628464f}
const static float kernel_12_B[9] = {-0.0017859652871266007f,0.03681033104658127f,-0.23996107280254364f,0.06806200742721558f,0.03406258672475815f,-0.33609968423843384f,0.044561561197042465f,-0.1449819803237915f,-0.13936947286128998f}
const static float kernel_13_B[9] = {-0.009872580878436565f,-0.00176899041980505f,0.10737291723489761f,0.15830454230308533f,0.09620115906000137f,0.005457454826682806f,-0.017352044582366943f,0.07734054327011108f,0.07731407135725021f}
const static float kernel_14_B[9] = {0.1090850904583931f,0.18690142035484314f,-0.03915353864431381f,-0.17190685868263245f,-0.0016989228315651417f,-0.06371308863162994f,-0.02534623071551323f,0.16581158339977264f,0.16927804052829742f}
const static float kernel_15_B[9] = {-0.3109288215637207f,-0.0630669966340065f,0.014597505331039429f,-0.07086062431335449f,-0.029978223145008087f,-0.021709326654672623f,-0.059456780552864075f,0.01430840790271759f,0.10915394872426987f}
