\* 8 filters, kernel size: 3x3*\
const static float kernel_0_R[9] = {0.017476245760917664f,-0.03935978561639786f,0.18420809507369995f,0.07071496546268463f,0.10261010378599167f,-0.11587554961442947f,0.23161961138248444f,0.1108008325099945f,-0.1297416239976883f}
const static float kernel_1_R[9] = {-0.07008301466703415f,0.04027832671999931f,0.22902822494506836f,-0.007183687295764685f,-0.2951626181602478f,-0.2595096826553345f,-0.18795211613178253f,-0.1700727343559265f,0.11928258091211319f}
const static float kernel_2_R[9] = {-0.22637219727039337f,-0.19776174426078796f,0.1680813878774643f,-0.16996566951274872f,-0.033954668790102005f,0.15563476085662842f,-0.0508420355618f,0.19543638825416565f,-0.1414376050233841f}
const static float kernel_3_R[9] = {0.26885923743247986f,-0.20694833993911743f,-0.19488491117954254f,0.12417640537023544f,-0.1921261101961136f,-0.050788749009370804f,-0.17993003129959106f,-0.0612642727792263f,0.05002957955002785f}
const static float kernel_4_R[9] = {-0.24529731273651123f,0.0683741346001625f,-0.0449100062251091f,-0.03874349594116211f,-0.00621033925563097f,-0.2381948083639145f,0.213091641664505f,-0.004963416140526533f,0.23088587820529938f}
const static float kernel_5_R[9] = {0.07146474719047546f,0.05450538173317909f,0.12215279787778854f,0.20302875339984894f,-0.057733796536922455f,-0.15602895617485046f,0.17891967296600342f,0.009224152192473412f,0.12303407490253448f}
const static float kernel_6_R[9] = {0.14216379821300507f,-0.13206037878990173f,0.026546090841293335f,-0.18901900947093964f,0.15491220355033875f,0.0776250883936882f,0.18871904909610748f,-0.08450912684202194f,0.03590800613164902f}
const static float kernel_7_R[9] = {0.08315123617649078f,-0.04915192350745201f,0.1783570498228073f,-0.2628829777240753f,-0.10802754014730453f,-0.1564955860376358f,-0.11735212057828903f,0.25885534286499023f,0.27973848581314087f}
const static float kernel_0_G[9] = {0.1061839684844017f,0.07390696555376053f,-0.029684914276003838f,-0.2523251175880432f,0.017696261405944824f,0.019508371129631996f,0.04922468587756157f,0.07098439335823059f,-0.16114608943462372f}
const static float kernel_1_G[9] = {-0.16864575445652008f,-0.07444463670253754f,0.07632267475128174f,-0.08523000776767731f,0.1779814064502716f,0.04766004532575607f,0.18683359026908875f,0.22723226249217987f,-0.10302921384572983f}
const static float kernel_2_G[9] = {0.16775424778461456f,0.17688141763210297f,0.023904835805296898f,0.10519791394472122f,0.19261951744556427f,-0.01882452517747879f,-0.2612169086933136f,-0.08523271232843399f,0.16290637850761414f}
const static float kernel_3_G[9] = {0.09425820410251617f,0.2891751229763031f,-0.0006823524599894881f,-0.18381062150001526f,0.1383059173822403f,0.10356313735246658f,0.12901997566223145f,0.060814835131168365f,0.12907598912715912f}
const static float kernel_4_G[9] = {-0.060265153646469116f,-0.23075205087661743f,0.07410741597414017f,0.1417544037103653f,-0.1562861204147339f,-0.02718987502157688f,0.00900300033390522f,0.24690088629722595f,-0.008504918776452541f}
const static float kernel_5_G[9] = {0.33778053522109985f,0.06298553198575974f,0.36585161089897156f,-0.14797033369541168f,-0.290703684091568f,-0.3654043674468994f,0.08210035413503647f,-0.16414053738117218f,-0.18706707656383514f}
const static float kernel_6_G[9] = {-0.19453784823417664f,-0.02682049572467804f,0.20971034467220306f,-0.07374842464923859f,0.1466100662946701f,0.1788223683834076f,-0.060331281274557114f,0.20311421155929565f,0.01941971853375435f}
const static float kernel_7_G[9] = {0.1964232176542282f,0.07036059349775314f,-0.1629226803779602f,0.16313757002353668f,-0.20516566932201385f,-0.10538322478532791f,0.22086553275585175f,-0.15539133548736572f,0.2054244726896286f}
const static float kernel_0_B[9] = {-0.07844140380620956f,0.061546627432107925f,-0.10786653310060501f,0.0018369188765063882f,-0.03821713477373123f,-0.006025726906955242f,-0.04245452582836151f,-0.1626775562763214f,0.031373217701911926f}
const static float kernel_1_B[9] = {0.19795840978622437f,0.102379709482193f,0.09913364797830582f,-0.16503801941871643f,0.1021396815776825f,0.1544836312532425f,0.2028561532497406f,-0.18921750783920288f,-0.02390390820801258f}
const static float kernel_2_B[9] = {-0.00396038219332695f,0.17939457297325134f,-0.18914830684661865f,0.23568840324878693f,-0.13349848985671997f,-0.09605048596858978f,0.15413980185985565f,0.1901128739118576f,-0.18811486661434174f}
const static float kernel_3_B[9] = {0.06802531331777573f,0.0036816434003412724f,0.07330827414989471f,-0.23738256096839905f,-0.14008431136608124f,-0.16622503101825714f,-0.013515882194042206f,0.05019087716937065f,-0.010616657324135303f}
const static float kernel_4_B[9] = {-0.14378131926059723f,-0.05923088639974594f,0.22803246974945068f,0.025198232382535934f,-0.07188183814287186f,0.19061020016670227f,0.057102613151073456f,-0.051915351301431656f,-0.07225792855024338f}
const static float kernel_5_B[9] = {0.16800904273986816f,0.14429649710655212f,0.06523025035858154f,-0.08316975831985474f,0.027624815702438354f,-0.04642822593450546f,-0.0644148737192154f,-0.17123255133628845f,-0.1360938996076584f}
const static float kernel_6_B[9] = {-0.1886959820985794f,-0.10544002056121826f,0.1378093659877777f,-0.11237340420484543f,0.09687536954879761f,-0.14332208037376404f,0.088843934237957f,0.008668956346809864f,-0.07278917729854584f}
const static float kernel_7_B[9] = {-0.15642531216144562f,0.22701263427734375f,-0.1301431506872177f,-0.20479167997837067f,-0.2325824648141861f,0.18035292625427246f,0.10127808898687363f,-0.09951993077993393f,0.25025805830955505f}
