\* 32 filters, kernel size: 3x3*\
const static float kernel_0_R[9] = {-0.0893263965845108f,-0.05579262971878052f,-0.04114384204149246f,-0.03664572164416313f,0.08357012271881104f,-0.008470069617033005f,-0.12954393029212952f,0.07964298129081726f,0.06289123743772507f}
const static float kernel_1_R[9] = {-0.07119633257389069f,0.12965527176856995f,0.1168908104300499f,-0.01685885339975357f,0.06974750757217407f,0.05551609396934509f,-0.056309714913368225f,0.0816422551870346f,0.059676725417375565f}
const static float kernel_2_R[9] = {0.09750569611787796f,0.14881880581378937f,0.0524265319108963f,-0.016880253329873085f,0.10477805137634277f,-0.0465397983789444f,0.09844719618558884f,0.01055306289345026f,-0.01368112675845623f}
const static float kernel_3_R[9] = {-0.02995719388127327f,-0.159332737326622f,-0.23528380692005157f,-0.027184901759028435f,-0.13715937733650208f,0.03237014636397362f,0.04597649723291397f,0.12374831736087799f,-0.058617003262043f}
const static float kernel_4_R[9] = {-0.15374432504177094f,0.02344362437725067f,0.06694547832012177f,0.024526717141270638f,0.05767681822180748f,0.056607551872730255f,-0.03132031857967377f,-0.010052595287561417f,-0.07999740540981293f}
const static float kernel_5_R[9] = {0.06988069415092468f,-0.04523773491382599f,0.02391151338815689f,0.027038684114813805f,-0.047950614243745804f,-0.061294060200452805f,0.07850189507007599f,0.031583331525325775f,-0.11149357259273529f}
const static float kernel_6_R[9] = {0.002279256470501423f,0.12898731231689453f,-0.08709550648927689f,-0.0026796169113367796f,0.10170521587133408f,-0.042633287608623505f,0.14493773877620697f,0.1493913233280182f,-0.11125537008047104f}
const static float kernel_7_R[9] = {-0.02569890208542347f,0.02891749143600464f,0.02053440548479557f,-0.01973174326121807f,0.08231804519891739f,-0.16698966920375824f,0.11935650557279587f,-0.06410191208124161f,0.10401938855648041f}
const static float kernel_8_R[9] = {0.025882689282298088f,-0.11019977182149887f,0.08444524556398392f,0.08474898338317871f,-0.18815632164478302f,-0.08704940229654312f,0.05173619091510773f,-0.013086842373013496f,0.0170323196798563f}
const static float kernel_9_R[9] = {0.13521452248096466f,-0.05045071244239807f,0.11982424557209015f,-0.16573581099510193f,0.018272079527378082f,0.0030146802309900522f,0.014112303964793682f,-0.09752711653709412f,0.02130737155675888f}
const static float kernel_10_R[9] = {0.0160612054169178f,0.005640093237161636f,0.07646816968917847f,0.018673008307814598f,0.05094895884394646f,-0.017305774614214897f,-0.02870376594364643f,-0.04242609441280365f,0.0039633214473724365f}
const static float kernel_11_R[9] = {0.044422417879104614f,-0.08256779611110687f,0.04409739375114441f,0.03727833926677704f,-0.08475428819656372f,0.0031418083235621452f,0.04917924851179123f,0.016210690140724182f,0.0185497235506773f}
const static float kernel_12_R[9] = {-0.03992582485079765f,0.018853947520256042f,0.03921765089035034f,-0.09658046811819077f,-0.031078903004527092f,-0.032397687435150146f,0.1324608027935028f,-0.21659548580646515f,-0.023308072239160538f}
const static float kernel_13_R[9] = {0.016628878191113472f,-0.08507753908634186f,0.024322545155882835f,0.0800476223230362f,-0.10573463886976242f,-0.002977791940793395f,-0.00630210293456912f,-0.1380823701620102f,0.09389307349920273f}
const static float kernel_14_R[9] = {-0.07950996607542038f,-0.12387851625680923f,-0.008067185059189796f,0.0721723660826683f,-0.059792350977659225f,-0.003141174791380763f,0.07777617126703262f,0.04727589711546898f,0.04047601297497749f}
const static float kernel_15_R[9] = {-0.11744184046983719f,-0.3051217496395111f,-0.16108457744121552f,0.052150532603263855f,-0.18937259912490845f,-0.012006895616650581f,0.062408119440078735f,-0.17423661053180695f,-0.1498759239912033f}
const static float kernel_16_R[9] = {-0.08387987315654755f,-0.04513443633913994f,0.08371790498495102f,-0.0931418240070343f,-0.019730214029550552f,0.0583588108420372f,0.1518879532814026f,-0.03266936168074608f,-0.05256384238600731f}
const static float kernel_17_R[9] = {0.018267737701535225f,0.05083147808909416f,0.14999893307685852f,0.007377580739557743f,-0.014214001595973969f,-0.022000763565301895f,0.13062235713005066f,-0.23537863790988922f,-0.09501419961452484f}
const static float kernel_18_R[9] = {-0.07686197757720947f,0.0012498180149123073f,0.06208082661032677f,-0.06112365797162056f,0.03126794099807739f,-0.14597448706626892f,0.013122485019266605f,-0.05960921198129654f,-0.002482421463355422f}
const static float kernel_19_R[9] = {-0.34003329277038574f,-0.061446886509656906f,0.11842014640569687f,-0.263532429933548f,0.06318706274032593f,0.010040594264864922f,-0.07868919521570206f,0.04606304317712784f,0.023851992562413216f}
const static float kernel_20_R[9] = {0.045998312532901764f,0.027148611843585968f,0.03671970218420029f,-0.08086718618869781f,-0.033715568482875824f,0.04834187030792236f,0.03655324503779411f,0.004138413816690445f,0.020456934347748756f}
const static float kernel_21_R[9] = {0.014706812798976898f,0.04153529554605484f,0.04511075094342232f,0.1225183829665184f,0.061864204704761505f,0.07288358360528946f,-0.03255020081996918f,-0.11898130178451538f,0.05275183171033859f}
const static float kernel_22_R[9] = {0.01072452962398529f,-0.16107363998889923f,-0.02816733717918396f,-0.14033298194408417f,-0.072261281311512f,-0.05744960159063339f,0.03414849564433098f,0.03606955334544182f,-0.08287971466779709f}
const static float kernel_23_R[9] = {0.03811177611351013f,-0.0478808619081974f,-0.13224756717681885f,0.046802133321762085f,0.03191263601183891f,0.06986042112112045f,-0.03864290565252304f,0.01462923176586628f,0.02972380816936493f}
const static float kernel_24_R[9] = {0.020000126212835312f,0.12912584841251373f,-0.20209261775016785f,-0.15582048892974854f,0.05562703311443329f,-0.017113739624619484f,-0.13612155616283417f,-0.022227555513381958f,0.11640887707471848f}
const static float kernel_25_R[9] = {0.04266013205051422f,0.1274595558643341f,0.10128775984048843f,-0.09364394843578339f,-0.11368650197982788f,-0.0672595351934433f,-0.05255858972668648f,0.08994121849536896f,0.08471935242414474f}
const static float kernel_26_R[9] = {0.005470448173582554f,0.06380641460418701f,-0.03220638260245323f,-0.0232648104429245f,0.08364091068506241f,0.10915573686361313f,0.11309966444969177f,0.07290750741958618f,-0.037706535309553146f}
const static float kernel_27_R[9] = {0.04581787809729576f,0.11642718315124512f,0.1099773570895195f,0.04327041283249855f,0.07562054693698883f,-0.0343380831182003f,0.038431327790021896f,0.029370971024036407f,-0.08659662306308746f}
const static float kernel_28_R[9] = {0.0670677050948143f,0.011177225038409233f,-0.05409480258822441f,0.17802584171295166f,-0.03120439127087593f,0.1285831332206726f,-0.001091732527129352f,0.00389032787643373f,-0.059663075953722f}
const static float kernel_29_R[9] = {-0.04060991853475571f,0.04707062989473343f,-0.08971536159515381f,-0.03786616027355194f,0.11852716654539108f,-0.028272392228245735f,-0.07453465461730957f,-0.01686476171016693f,-0.059843383729457855f}
const static float kernel_30_R[9] = {0.029826678335666656f,0.20197269320487976f,-0.06889832019805908f,0.09565021842718124f,0.0432891845703125f,-0.0757618322968483f,0.032594986259937286f,0.11498475074768066f,-0.1730063408613205f}
const static float kernel_31_R[9] = {0.13948728144168854f,-0.32921263575553894f,0.031669341027736664f,0.011287788860499859f,-0.10886841267347336f,0.013806669041514397f,0.17478124797344208f,-0.28617092967033386f,-0.1113029420375824f}
const static float kernel_0_G[9] = {0.0010581756941974163f,0.11042112857103348f,-0.07203833758831024f,-0.06479213386774063f,0.15349628031253815f,0.1485186666250229f,-0.11162389814853668f,0.0815163180232048f,0.1349249631166458f}
const static float kernel_1_G[9] = {-0.1224365383386612f,-0.09324649721384048f,-0.0587041974067688f,0.04015166684985161f,-0.009234687313437462f,0.08452441543340683f,-0.06646353751420975f,-0.09594017267227173f,-0.0017406671540811658f}
const static float kernel_2_G[9] = {-0.03504595160484314f,-0.11813776940107346f,0.21513651311397552f,0.13062067329883575f,-0.04279620200395584f,0.08885923027992249f,-0.022222980856895447f,0.004415344912558794f,-0.047267667949199677f}
const static float kernel_3_G[9] = {-0.19412708282470703f,-0.2057640254497528f,-0.20894134044647217f,-0.002671358408406377f,-0.0743432492017746f,-0.007193667348474264f,-0.007440568879246712f,0.09228993952274323f,0.036596424877643585f}
const static float kernel_4_G[9] = {-0.1976967304944992f,-0.054839152842760086f,0.009404152631759644f,-0.037065427750349045f,-0.07627145200967789f,0.10448924452066422f,0.03228449448943138f,-0.054566770792007446f,-0.0769507959485054f}
const static float kernel_5_G[9] = {0.10082123428583145f,0.04668326675891876f,-0.18853627145290375f,0.07140301167964935f,-0.044631313532590866f,-0.10900159180164337f,-0.0404018834233284f,0.05265331640839577f,-0.09269821643829346f}
const static float kernel_6_G[9] = {0.08183017373085022f,-0.05220845714211464f,0.12519484758377075f,-0.05752011016011238f,-0.08157198131084442f,-0.17281638085842133f,0.11123762279748917f,-0.03356720134615898f,0.04171714931726456f}
const static float kernel_7_G[9] = {0.024818722158670425f,0.00800998043268919f,0.12339853495359421f,-0.019679125398397446f,0.0006945425411686301f,0.008643320761620998f,0.19043941795825958f,-0.1942036747932434f,0.00974934920668602f}
const static float kernel_8_G[9] = {-0.03342464193701744f,-0.1346176266670227f,0.056283049285411835f,0.03220342844724655f,-0.03679320588707924f,0.03146679326891899f,0.06721246987581253f,0.022821953520178795f,0.010343410074710846f}
const static float kernel_9_G[9] = {-0.05600696802139282f,-0.07794013619422913f,0.04078816995024681f,-0.1067434698343277f,-0.06106996163725853f,0.027674665674567223f,-0.07161959260702133f,-0.024176331236958504f,-0.06370340287685394f}
const static float kernel_10_G[9] = {0.09809748828411102f,0.12766605615615845f,0.10874667018651962f,0.07584302127361298f,0.14995932579040527f,-0.023841340094804764f,-0.038586948066949844f,0.02368372678756714f,-0.07119974493980408f}
const static float kernel_11_G[9] = {-0.07020805031061172f,-0.03783787786960602f,0.10719135403633118f,0.13334299623966217f,-0.06216879189014435f,0.06634236872196198f,0.0017514496576040983f,-0.011402313597500324f,0.07732290774583817f}
const static float kernel_12_G[9] = {0.01675713248550892f,-0.055035851895809174f,0.14498589932918549f,0.0641472190618515f,-0.15538297593593597f,0.16021691262722015f,-0.016694165766239166f,-0.1552727222442627f,0.10861621797084808f}
const static float kernel_13_G[9] = {-0.009413009509444237f,-0.016739269718527794f,0.02289106883108616f,-0.04087179899215698f,-0.05655740201473236f,-0.036367639899253845f,0.09044314920902252f,0.08792103081941605f,0.11366941034793854f}
const static float kernel_14_G[9] = {-0.08017971366643906f,0.08883173763751984f,0.12264170497655869f,-0.15880005061626434f,-0.033394984900951385f,-0.11368940025568008f,0.018155628815293312f,-0.046404559165239334f,0.15042553842067719f}
const static float kernel_15_G[9] = {-0.10841941833496094f,-0.22214028239250183f,0.023254815489053726f,0.03770793601870537f,0.010047540068626404f,-0.04540182650089264f,0.1968962550163269f,-0.07687434554100037f,-0.003805836895480752f}
const static float kernel_16_G[9] = {-0.050601664930582047f,0.037250928580760956f,0.07090383023023605f,0.012294371612370014f,0.1730162352323532f,0.044324204325675964f,0.05691729485988617f,0.10645770281553268f,0.07985494285821915f}
const static float kernel_17_G[9] = {0.027066517621278763f,-0.13321687281131744f,0.13964298367500305f,-0.03803831711411476f,0.009743365459144115f,0.03005005419254303f,-0.0818071961402893f,-0.3090171813964844f,0.03440361097455025f}
const static float kernel_18_G[9] = {-0.216946542263031f,0.018429717049002647f,0.014621999114751816f,-0.1249811127781868f,0.03717869147658348f,-0.04096587747335434f,-0.2743948996067047f,-0.06703600287437439f,0.1109367311000824f}
const static float kernel_19_G[9] = {-0.09834542870521545f,0.05223057046532631f,0.10908787697553635f,-0.03709368780255318f,-0.04191289469599724f,0.011557932943105698f,-0.18616412580013275f,-0.009566100314259529f,0.007145800162106752f}
const static float kernel_20_G[9] = {-0.15951679646968842f,0.055249642580747604f,-0.09585167467594147f,0.04671606048941612f,0.08035024255514145f,0.010580447502434254f,-0.02004331350326538f,-0.007790368981659412f,0.07756716758012772f}
const static float kernel_21_G[9] = {-0.09223587065935135f,0.03976341336965561f,-0.10633337497711182f,-0.022174302488565445f,0.017622003331780434f,0.12117436528205872f,0.003236024174839258f,-0.12351536750793457f,0.0930415466427803f}
const static float kernel_22_G[9] = {-0.12253889441490173f,0.07590071111917496f,-0.08685623854398727f,0.03675035387277603f,0.11851862818002701f,0.05769738927483559f,-0.09576275944709778f,0.1432342678308487f,-0.047915615141391754f}
const static float kernel_23_G[9] = {0.04768301174044609f,-0.08695592731237411f,0.05009814724326134f,0.09155891090631485f,-0.14597222208976746f,0.09423814713954926f,0.042785193771123886f,0.014706973917782307f,0.06366106867790222f}
const static float kernel_24_G[9] = {0.08324635773897171f,-0.07666058093309402f,-0.17054414749145508f,-0.1306014209985733f,0.09150207787752151f,-0.04138728976249695f,-0.18493275344371796f,-0.06821707636117935f,-0.008644766174256802f}
const static float kernel_25_G[9] = {-0.06992688030004501f,-0.06978775560855865f,-0.054337721318006516f,-0.1064746305346489f,-0.1610523909330368f,-0.11045721918344498f,-0.11984719336032867f,-0.01939268596470356f,-0.09960029274225235f}
const static float kernel_26_G[9] = {-0.07708075642585754f,0.07759255170822144f,0.05273880437016487f,-0.04841485619544983f,0.06329763680696487f,0.006499785929918289f,0.00032617937540635467f,-0.10847250372171402f,-0.12248935550451279f}
const static float kernel_27_G[9] = {-0.05273639038205147f,0.0331941619515419f,-0.004119056276977062f,-0.20150867104530334f,-0.09912022203207016f,0.10529647767543793f,0.10127788037061691f,0.03986962512135506f,0.15171664953231812f}
const static float kernel_28_G[9] = {0.1268111914396286f,-0.03620701655745506f,-0.04569684714078903f,-0.008655360899865627f,-0.03832226246595383f,0.1347990334033966f,-0.10290665924549103f,0.009237687103450298f,0.11867273598909378f}
const static float kernel_29_G[9] = {-0.1444867104291916f,0.06225743144750595f,-0.025637641549110413f,0.00026822846848517656f,-0.09133134037256241f,0.11545678973197937f,0.11109189689159393f,-0.0886392667889595f,-0.024589478969573975f}
const static float kernel_30_G[9] = {0.08387761563062668f,-0.0330544114112854f,0.01212654635310173f,0.031705137342214584f,-0.029222840443253517f,-0.06301249563694f,0.06994052976369858f,-0.03348040580749512f,-0.057688914239406586f}
const static float kernel_31_G[9] = {0.11732417345046997f,-0.04567176476120949f,-0.05361763387918472f,0.2541949152946472f,0.10084887593984604f,0.059913598001003265f,0.24838405847549438f,-0.009178242646157742f,-0.03485088050365448f}
const static float kernel_0_B[9] = {-0.00397311057895422f,0.12671956419944763f,-0.027799328789114952f,0.026617232710123062f,-0.0013028312241658568f,0.03922369331121445f,-0.005457472521811724f,-0.015717169269919395f,0.07200653105974197f}
const static float kernel_1_B[9] = {0.08363386988639832f,-0.0049556042067706585f,-0.039769768714904785f,-0.06529086828231812f,0.04696653038263321f,-0.09750968217849731f,-0.028047598898410797f,0.06848695874214172f,0.06394308060407639f}
const static float kernel_2_B[9] = {0.07248934358358383f,-0.1287831813097f,0.021999944001436234f,0.18348677456378937f,-0.21481087803840637f,-0.22399373352527618f,0.08934682607650757f,-0.06250492483377457f,-0.2525448203086853f}
const static float kernel_3_B[9] = {0.10008219629526138f,-0.09841557592153549f,-0.11750921607017517f,0.061438340693712234f,-0.00694403937086463f,-0.10091348737478256f,-0.015055743977427483f,0.15609261393547058f,0.0028206026181578636f}
const static float kernel_4_B[9] = {0.03518592566251755f,0.1731378138065338f,0.21191710233688354f,-0.033798329532146454f,-0.10803675651550293f,-0.014748187735676765f,-0.010224003344774246f,-0.08937273174524307f,0.07818946242332458f}
const static float kernel_5_B[9] = {-0.1614258736371994f,0.047835975885391235f,0.008787635713815689f,-0.15658800303936005f,0.10774553567171097f,0.0337148942053318f,-0.08658324927091599f,0.13926836848258972f,-0.10736143589019775f}
const static float kernel_6_B[9] = {0.04726897180080414f,0.05494680628180504f,-0.04325195029377937f,0.08314884454011917f,-0.1998676359653473f,-0.11742151528596878f,0.22130186855793f,-0.10893945395946503f,-0.020131915807724f}
const static float kernel_7_B[9] = {-0.15227484703063965f,0.007118319161236286f,0.03605235368013382f,-0.2440422773361206f,0.05655861645936966f,0.0641474798321724f,0.11111894994974136f,-0.12099513411521912f,0.14784011244773865f}
const static float kernel_8_B[9] = {-0.054662466049194336f,-0.09467167407274246f,0.028477763757109642f,0.05199378356337547f,0.014686450362205505f,0.10375937819480896f,-0.018033957108855247f,-0.0391024611890316f,0.11586251854896545f}
const static float kernel_9_B[9] = {-0.07626240700483322f,-0.08430735766887665f,-0.006523136515170336f,-0.23823657631874084f,0.021475840359926224f,0.12859293818473816f,-0.004277464002370834f,0.057793449610471725f,-0.03430550917983055f}
const static float kernel_10_B[9] = {0.10757604986429214f,0.025469059124588966f,0.23053701221942902f,-0.08144263178110123f,0.062049105763435364f,0.028205353766679764f,0.16338379681110382f,0.18667620420455933f,-0.018247025087475777f}
const static float kernel_11_B[9] = {-0.13333941996097565f,0.014246526174247265f,0.09651575237512589f,0.06093895062804222f,0.13713549077510834f,-0.15895529091358185f,-0.08294766396284103f,-0.07828536629676819f,0.12532560527324677f}
const static float kernel_12_B[9] = {0.1341375857591629f,0.05507504194974899f,0.1033007949590683f,0.05258634686470032f,-0.09116646647453308f,0.004960276652127504f,0.061588745564222336f,-0.14225167036056519f,0.20368093252182007f}
const static float kernel_13_B[9] = {0.007945357821881771f,-0.14750617742538452f,0.20759165287017822f,-0.012984657660126686f,-0.12853918969631195f,0.035581670701503754f,-0.031101711094379425f,-0.12959377467632294f,-0.06457190215587616f}
const static float kernel_14_B[9] = {-0.03422701731324196f,-0.002129439963027835f,0.14385327696800232f,0.07584944367408752f,0.09616006910800934f,0.049364130944013596f,0.10915490984916687f,-0.09968562424182892f,0.03859783336520195f}
const static float kernel_15_B[9] = {0.2195262312889099f,-0.2229379266500473f,-0.13206744194030762f,0.14469288289546967f,-0.09073495864868164f,0.07558755576610565f,0.24061407148838043f,-0.10870157182216644f,0.04613986983895302f}
const static float kernel_16_B[9] = {0.12557452917099f,0.052943941205739975f,-0.04127293452620506f,-0.04149581491947174f,0.08222368359565735f,0.0022260986734181643f,0.013868642039597034f,-0.02614928036928177f,-0.004691443871706724f}
const static float kernel_17_B[9] = {0.019353322684764862f,-0.054842736572027206f,0.2124793827533722f,0.007987309247255325f,0.017734277993440628f,0.07430119812488556f,-0.16020548343658447f,-0.13272276520729065f,0.11807511001825333f}
const static float kernel_18_B[9] = {-0.19196392595767975f,0.12687888741493225f,-0.12043795734643936f,-0.1605565845966339f,-0.035106807947158813f,0.06477554142475128f,-0.005180384498089552f,-0.08051430433988571f,-0.03232955187559128f}
const static float kernel_19_B[9] = {-0.09225305169820786f,-0.07934730499982834f,0.18054229021072388f,-0.03185640648007393f,-0.05621717870235443f,-0.08652416616678238f,0.09355120360851288f,-0.05473511666059494f,0.005326000973582268f}
const static float kernel_20_B[9] = {0.09696726500988007f,0.1169828549027443f,0.03698989003896713f,0.025838805362582207f,0.03511245921254158f,-0.06169058755040169f,0.15243571996688843f,-0.020096199586987495f,0.018074413761496544f}
const static float kernel_21_B[9] = {-0.03337394818663597f,-0.04586707428097725f,0.1247006505727768f,-0.17101673781871796f,-0.12125029414892197f,0.0186955314129591f,0.007678232155740261f,-0.05864229053258896f,0.11483587324619293f}
const static float kernel_22_B[9] = {-0.13187286257743835f,0.061623457819223404f,0.10949321836233139f,0.07069769501686096f,0.007514979224652052f,-0.01572306454181671f,-0.06274904310703278f,0.0749143436551094f,0.12003649771213531f}
const static float kernel_23_B[9] = {0.07209288328886032f,0.012853751890361309f,-0.016635332256555557f,0.12975773215293884f,0.15821664035320282f,0.05057177692651749f,0.04310989752411842f,0.1401713639497757f,0.021191539242863655f}
const static float kernel_24_B[9] = {-0.1271849125623703f,-0.14967049658298492f,-0.08530627191066742f,-0.216701939702034f,-0.06326176971197128f,-0.11066091805696487f,-0.046750765293836594f,-0.03473084047436714f,0.030039478093385696f}
const static float kernel_25_B[9] = {-0.1408579796552658f,-0.10296086966991425f,0.04988032579421997f,0.009103210642933846f,-0.1139625608921051f,-0.07521963119506836f,0.07193978130817413f,-0.12004450708627701f,-0.1921965330839157f}
const static float kernel_26_B[9] = {-0.1097664013504982f,-0.032188888639211655f,0.03037269413471222f,0.02650996297597885f,0.027000829577445984f,0.12340299785137177f,-0.013071431778371334f,-0.07406674325466156f,-0.04060186445713043f}
const static float kernel_27_B[9] = {-0.0847129300236702f,-0.056937362998723984f,-0.009740829467773438f,-0.026542428880929947f,-0.003996546380221844f,-0.0131384851410985f,-0.04877672716975212f,0.062116675078868866f,0.07592277973890305f}
const static float kernel_28_B[9] = {-0.14070317149162292f,-0.10133392363786697f,0.09997622668743134f,-0.029096562415361404f,-0.03378405421972275f,0.09606962651014328f,-0.01577618531882763f,-0.026738429442048073f,0.18008361756801605f}
const static float kernel_29_B[9] = {0.1321648806333542f,-0.10249403864145279f,0.08715163171291351f,0.12181862443685532f,-0.0723317489027977f,0.07273712009191513f,0.10134065896272659f,0.012373370118439198f,0.11360441893339157f}
const static float kernel_30_B[9] = {-0.0005605731857940555f,-0.053539570420980453f,-0.05936117470264435f,-0.049349505454301834f,-0.13142690062522888f,-0.10967855900526047f,0.1507028490304947f,-0.04292410612106323f,-0.05214850232005119f}
const static float kernel_31_B[9] = {-0.04475417733192444f,0.12176412343978882f,0.13304325938224792f,0.02679341845214367f,0.027984613552689552f,-0.028653869405388832f,0.010103587992489338f,0.08404313772916794f,-0.08301135152578354f}
